{
  "num_mlp_neurons": 256,
  "num_heads": 4,
  "conditions": {
    "10": {
      "n_rows": 9995
    },
    "16": {
      "n_rows": 9988
    },
    "2": {
      "n_rows": 9812
    },
    "8": {
      "n_rows": 9983
    }
  },
  "layers": {
    "0": {
      "10": {
        "features": [
          8,
          17,
          35,
          36,
          40,
          42,
          43,
          61,
          62,
          67,
          69,
          73,
          77,
          97,
          101,
          116,
          119,
          125,
          135,
          143,
          145,
          158,
          161,
          165,
          181,
          182,
          188,
          191,
          200,
          204,
          208,
          218,
          219,
          221,
          231,
          239,
          245,
          249,
          255,
          256,
          257,
          258,
          259
        ],
        "weight": [
          0.085175059735775,
          0.10908513516187668,
          0.02335105650126934,
          -0.39688655734062195,
          0.4484577476978302,
          0.14966200292110443,
          0.31944340467453003,
          0.1007036343216896,
          -0.0023745896760374308,
          -0.43842360377311707,
          -0.15640583634376526,
          0.03930392861366272,
          0.20806154608726501,
          -0.20332491397857666,
          0.09977775812149048,
          -0.18136152625083923,
          -0.1655399054288864,
          -0.04693928733468056,
          0.42669203877449036,
          -0.184210866689682,
          0.4391821026802063,
          0.431761771440506,
          0.978656530380249,
          0.8098378777503967,
          0.21616114675998688,
          -0.14032119512557983,
          0.4395774006843567,
          0.6006870269775391,
          0.004164740908890963,
          -0.576691746711731,
          0.34173548221588135,
          0.5496182441711426,
          -0.11998023092746735,
          -0.08080919086933136,
          0.13099393248558044,
          -0.353368878364563,
          0.10649710148572922,
          0.3264111578464508,
          -0.9195499420166016,
          -0.08596554398536682,
          -0.0058654253371059895,
          0.02644273266196251,
          0.22633971273899078
        ]
      },
      "16": {
        "features": [
          4,
          17,
          29,
          38,
          43,
          61,
          67,
          69,
          97,
          105,
          117,
          126,
          127,
          134,
          135,
          143,
          147,
          150,
          164,
          165,
          182,
          191,
          195,
          196,
          200,
          201,
          208,
          217,
          218,
          219,
          221,
          223,
          228,
          232,
          239,
          245,
          251,
          256,
          257,
          258,
          259
        ],
        "weight": [
          0.09039921313524246,
          0.05484222248196602,
          2.9437382181640714e-05,
          0.152225524187088,
          0.08464677631855011,
          0.21417762339115143,
          0.19954432547092438,
          -0.0628671795129776,
          -0.001162641798146069,
          0.7891528010368347,
          0.015681205317378044,
          -0.025600465014576912,
          -0.0027047626208513975,
          -0.01331599522382021,
          0.4177841246128082,
          0.0038390865083783865,
          -0.12150924652814865,
          0.03190697357058525,
          0.10791945457458496,
          -0.09208045899868011,
          -0.4115283191204071,
          0.24348755180835724,
          -0.05297009274363518,
          -0.24029111862182617,
          0.005222404841333628,
          -0.02770320698618889,
          -0.05316764861345291,
          0.0509704053401947,
          -0.05184634029865265,
          -0.26190799474716187,
          -0.020586127415299416,
          -0.03769279643893242,
          0.015411357395350933,
          -0.02773130312561989,
          -0.1546223908662796,
          0.01962285488843918,
          -0.15404488146305084,
          0.0323965921998024,
          -0.006782891228795052,
          -0.09019140899181366,
          0.0226513110101223
        ]
      },
      "2": {
        "features": [
          1,
          2,
          10,
          32,
          33,
          35,
          36,
          42,
          43,
          69,
          71,
          76,
          77,
          80,
          93,
          100,
          105,
          116,
          117,
          123,
          127,
          140,
          142,
          143,
          147,
          149,
          150,
          158,
          164,
          165,
          167,
          176,
          180,
          182,
          186,
          191,
          195,
          200,
          201,
          213,
          219,
          226,
          239,
          245,
          249,
          255,
          257,
          258,
          259
        ],
        "weight": [
          0.54066401720047,
          0.03136963024735451,
          -0.22266216576099396,
          0.23209576308727264,
          -0.05856753885746002,
          0.013153716921806335,
          0.06921733170747757,
          -0.07987076789140701,
          0.02948194369673729,
          -0.09144702553749084,
          -0.056776437908411026,
          0.0634908378124237,
          0.0038059952203184366,
          0.22115014493465424,
          -0.27199241518974304,
          -0.13044239580631256,
          0.20268312096595764,
          0.02941739559173584,
          -0.1755945384502411,
          -0.11016510426998138,
          -0.06520254909992218,
          -0.05265792831778526,
          -0.0418681837618351,
          0.14619489014148712,
          0.005199357867240906,
          0.18645580112934113,
          -0.05980111286044121,
          0.04100301116704941,
          0.007098474074155092,
          0.05447769910097122,
          -0.0896402895450592,
          0.03258036822080612,
          -0.09947751462459564,
          0.4082423150539398,
          -0.01438048668205738,
          -0.0010011064587160945,
          -0.08680156618356705,
          -0.010699828155338764,
          0.05910190939903259,
          -0.21239817142486572,
          0.05059404671192169,
          -0.0001730992371449247,
          -0.032916564494371414,
          0.089051254093647,
          -0.09683132916688919,
          0.08565592020750046,
          0.04867848753929138,
          -0.08560393750667572,
          0.027415357530117035
        ]
      },
      "8": {
        "features": [
          8,
          10,
          12,
          17,
          19,
          29,
          35,
          36,
          43,
          67,
          76,
          90,
          95,
          97,
          103,
          105,
          114,
          119,
          125,
          126,
          127,
          143,
          150,
          158,
          165,
          176,
          181,
          182,
          188,
          195,
          196,
          201,
          208,
          218,
          219,
          228,
          249,
          251,
          255,
          257,
          258,
          259
        ],
        "weight": [
          0.08985300362110138,
          0.0965217873454094,
          -0.16090163588523865,
          0.22647705674171448,
          -0.22206872701644897,
          -0.0015258978819474578,
          -0.06604694575071335,
          -0.31729087233543396,
          -0.003358546644449234,
          -0.33802470564842224,
          -0.29025381803512573,
          -0.120770163834095,
          -0.12253693491220474,
          -0.08139011263847351,
          -0.2306349128484726,
          0.1373259723186493,
          0.2535923719406128,
          -0.00502349529415369,
          -0.09426688402891159,
          -0.10815054178237915,
          0.1479266732931137,
          -0.07840865850448608,
          0.04236358404159546,
          0.11418977379798889,
          0.4428485631942749,
          0.21521711349487305,
          0.024753263220191002,
          -0.2236744910478592,
          0.1506945639848709,
          -0.1377326101064682,
          -0.5503076910972595,
          0.043380703777074814,
          0.1263761669397354,
          0.1894783079624176,
          -0.10102059692144394,
          -0.08013971894979477,
          -0.046332068741321564,
          0.36538809537887573,
          0.07845097035169601,
          8.793357119429857e-05,
          -0.0023291660472750664,
          0.2527671754360199
        ]
      }
    },
    "1": {
      "10": {
        "features": [
          2,
          3,
          5,
          8,
          9,
          10,
          12,
          13,
          14,
          15,
          16,
          17,
          19,
          20,
          21,
          22,
          23,
          25,
          26,
          31,
          33,
          34,
          36,
          38,
          41,
          43,
          45,
          46,
          53,
          58,
          59,
          62,
          64,
          66,
          70,
          75,
          77,
          78,
          79,
          83,
          84,
          85,
          88,
          90,
          93,
          94,
          96,
          97,
          98,
          99,
          101,
          102,
          106,
          110,
          112,
          113,
          120,
          121,
          123,
          124,
          126,
          128,
          129,
          132,
          136,
          140,
          141,
          146,
          147,
          149,
          150,
          152,
          156,
          161,
          165,
          169,
          173,
          174,
          175,
          176,
          177,
          179,
          180,
          182,
          183,
          184,
          186,
          187,
          193,
          195,
          197,
          198,
          199,
          202,
          204,
          205,
          206,
          207,
          210,
          215,
          218,
          220,
          226,
          228,
          230,
          233,
          234,
          236,
          237,
          238,
          240,
          241,
          242,
          243,
          244,
          248,
          251,
          252,
          258
        ],
        "weight": [
          -0.036862801760435104,
          0.04675685986876488,
          -0.016573604196310043,
          0.08185435831546783,
          -0.005918447393923998,
          0.03299189731478691,
          0.041333094239234924,
          -0.010800310410559177,
          0.007026746869087219,
          -0.010375750251114368,
          -0.0062170871533453465,
          0.002022987464442849,
          0.04504793509840965,
          0.07833100855350494,
          -0.04702278971672058,
          -0.010847358033061028,
          0.010250226594507694,
          -0.013055316172540188,
          0.009904070757329464,
          0.0020706173963844776,
          -0.04162764176726341,
          0.01360298227518797,
          -0.001254559145309031,
          0.006540624424815178,
          0.0015420622657984495,
          -0.012271462008357048,
          -0.004562450107187033,
          -0.006786526646465063,
          -0.024939285591244698,
          -0.08293813467025757,
          -0.029861733317375183,
          -0.018817272037267685,
          0.0015539645683020353,
          0.025471346452832222,
          0.0016294384840875864,
          0.016877248883247375,
          0.0002209045778727159,
          -0.0935681164264679,
          -0.011518093757331371,
          0.01167701743543148,
          0.02294887974858284,
          -0.0008149211062118411,
          0.06122138723731041,
          0.0010064837988466024,
          0.027717631310224533,
          0.04444875195622444,
          0.08974036574363708,
          -0.014257369562983513,
          -0.010443021543323994,
          0.1208612397313118,
          -0.0014287877129390836,
          -0.17746011912822723,
          0.021010102704167366,
          0.035082921385765076,
          -0.03190457820892334,
          -0.024189293384552002,
          0.02048218995332718,
          -0.09041808545589447,
          -0.010617130436003208,
          -0.010101302526891232,
          -0.002111443318426609,
          0.1387205272912979,
          0.022033408284187317,
          -0.39569419622421265,
          -0.019792964681982994,
          0.00457534147426486,
          0.0032868084963411093,
          0.000548444630112499,
          -0.03152051195502281,
          0.003810150781646371,
          -0.016661955043673515,
          -0.0019715328235179186,
          -0.01936369203031063,
          0.018344156444072723,
          -0.07501383870840073,
          -0.012338927015662193,
          0.021937621757388115,
          0.011233077384531498,
          0.023485658690333366,
          0.06115114688873291,
          0.061968740075826645,
          -0.07616785913705826,
          -0.07991354167461395,
          0.003190823132172227,
          -0.020215779542922974,
          0.005195487756282091,
          -0.01941547729074955,
          -0.04364868253469467,
          0.055905602872371674,
          -0.03351345285773277,
          0.008232252672314644,
          -0.013891005888581276,
          0.09420324116945267,
          -0.0231673214584589,
          -0.03656759113073349,
          -0.027393925935029984,
          -0.05542561039328575,
          0.059053633362054825,
          0.013672908768057823,
          0.008897106163203716,
          0.008756936527788639,
          -0.014368846081197262,
          -0.0190428476780653,
          -0.04220119118690491,
          -0.042711060494184494,
          0.28958117961883545,
          -0.04067962244153023,
          -0.04888727515935898,
          -0.013042568229138851,
          -0.017320552840828896,
          -0.09852511435747147,
          0.02652418427169323,
          -0.013004177249968052,
          0.011843563988804817,
          0.01970779336988926,
          0.17290742695331573,
          0.0014007602585479617,
          0.07252392917871475,
          -0.007141105830669403
        ]
      },
      "16": {
        "features": [
          0,
          1,
          3,
          4,
          11,
          13,
          14,
          15,
          18,
          19,
          20,
          23,
          25,
          27,
          28,
          30,
          31,
          32,
          34,
          35,
          36,
          38,
          40,
          41,
          43,
          44,
          47,
          48,
          53,
          56,
          57,
          64,
          66,
          70,
          71,
          73,
          76,
          78,
          82,
          83,
          84,
          89,
          90,
          92,
          96,
          103,
          105,
          106,
          107,
          111,
          113,
          114,
          115,
          118,
          120,
          121,
          122,
          123,
          128,
          129,
          132,
          133,
          136,
          137,
          139,
          142,
          145,
          146,
          148,
          149,
          151,
          152,
          153,
          155,
          156,
          161,
          163,
          165,
          166,
          170,
          171,
          172,
          173,
          177,
          178,
          182,
          184,
          185,
          186,
          188,
          189,
          191,
          192,
          193,
          194,
          196,
          198,
          200,
          201,
          203,
          205,
          207,
          209,
          211,
          212,
          217,
          218,
          219,
          227,
          228,
          229,
          231,
          233,
          234,
          235,
          238,
          240,
          242,
          245,
          256,
          257,
          258,
          259
        ],
        "weight": [
          -0.11078519374132156,
          -0.03658939525485039,
          -0.016267819330096245,
          0.040745481848716736,
          0.02008243277668953,
          0.001490155584178865,
          0.006394659634679556,
          -0.039701540023088455,
          -0.010604070499539375,
          -0.08827521651983261,
          0.13456398248672485,
          -0.016788091510534286,
          0.0005652356776408851,
          -0.004169116728007793,
          0.037342555820941925,
          -0.021563980728387833,
          -0.024074753746390343,
          -0.003707599127665162,
          0.057426564395427704,
          -0.020190682262182236,
          -0.009104639291763306,
          0.05280914530158043,
          0.06161759793758392,
          0.01475449651479721,
          0.011630921624600887,
          -0.007980412803590298,
          -0.011646503582596779,
          -0.005159673746675253,
          -0.06179811805486679,
          -0.016202474012970924,
          0.00969182699918747,
          -0.01565590873360634,
          0.007971126586198807,
          -0.02492499351501465,
          -0.05158544331789017,
          -0.02877834625542164,
          0.06041409820318222,
          -0.04489382356405258,
          0.011040044948458672,
          -0.0862160325050354,
          -0.00574302114546299,
          -0.004732252098619938,
          -0.00038414329173974693,
          -0.013082318007946014,
          0.005695341620594263,
          0.017466090619564056,
          0.019944628700613976,
          -0.007585007697343826,
          -0.02678103558719158,
          -0.005461896304041147,
          -0.05165157467126846,
          -0.020884012803435326,
          -0.09161320328712463,
          -0.12471718341112137,
          -0.011625559069216251,
          -0.03082416020333767,
          -0.0007678552065044641,
          -0.0001480885548517108,
          0.14856037497520447,
          0.01562140416353941,
          0.0691474974155426,
          -0.059769388288259506,
          -0.03349754214286804,
          0.032248664647340775,
          -0.029787490144371986,
          -0.00524907698854804,
          0.07796728610992432,
          0.015256576240062714,
          0.009857149794697762,
          0.059002745896577835,
          -0.0030506059993058443,
          -0.01681920327246189,
          0.01141219399869442,
          -0.058549344539642334,
          -0.008509380742907524,
          0.0005625181365758181,
          0.07348630577325821,
          -0.013338254764676094,
          -0.007477167062461376,
          -0.0032922406680881977,
          0.04166972637176514,
          0.14775916934013367,
          0.03470618277788162,
          -0.004519532434642315,
          0.0022035541478544474,
          -0.054666098207235336,
          0.043611906468868256,
          -0.00826056394726038,
          -0.0007928337436169386,
          -0.004414363298565149,
          -0.05379408225417137,
          0.0007570140296593308,
          -0.027831541374325752,
          -0.02625931426882744,
          0.003601899603381753,
          -0.004837803542613983,
          -0.0027489918284118176,
          -0.02225460484623909,
          -0.03543191775679588,
          0.002323001390323043,
          0.019079886376857758,
          0.03307569399476051,
          0.0210999995470047,
          0.011449548415839672,
          0.014796881005167961,
          -0.01404225267469883,
          0.11362933367490768,
          0.009056366980075836,
          0.001845601131208241,
          0.010714402422308922,
          -0.024202797561883926,
          -0.003245716216042638,
          -0.023174308240413666,
          -0.019242865964770317,
          -0.03541887179017067,
          -0.037989262491464615,
          -0.05695188790559769,
          -0.011702426709234715,
          0.004542613867670298,
          -0.08608217537403107,
          -0.03257925808429718,
          -0.034904882311820984,
          0.027226492762565613
        ]
      },
      "2": {
        "features": [
          2,
          3,
          5,
          6,
          8,
          10,
          13,
          15,
          17,
          20,
          26,
          27,
          28,
          30,
          31,
          32,
          34,
          37,
          38,
          42,
          43,
          45,
          54,
          61,
          62,
          68,
          70,
          71,
          72,
          75,
          78,
          82,
          85,
          86,
          87,
          90,
          94,
          101,
          102,
          103,
          107,
          109,
          111,
          115,
          117,
          118,
          122,
          126,
          129,
          133,
          136,
          137,
          139,
          141,
          143,
          151,
          152,
          154,
          156,
          158,
          161,
          163,
          165,
          166,
          167,
          169,
          170,
          173,
          174,
          175,
          177,
          180,
          182,
          183,
          184,
          186,
          187,
          188,
          189,
          191,
          192,
          193,
          194,
          196,
          199,
          201,
          202,
          204,
          205,
          206,
          208,
          209,
          212,
          214,
          215,
          217,
          219,
          221,
          222,
          224,
          228,
          236,
          238,
          239,
          240,
          243,
          246,
          247,
          250,
          252,
          254,
          256,
          258
        ],
        "weight": [
          -0.13377149403095245,
          0.0025117413606494665,
          0.060221511870622635,
          0.14614646136760712,
          -0.02792949788272381,
          0.012123220600187778,
          -0.01625148020684719,
          -0.01767132245004177,
          -0.005033828783780336,
          0.04218011721968651,
          0.043044187128543854,
          0.032073263078927994,
          0.1359698325395584,
          0.15584243834018707,
          0.07657890021800995,
          -0.14048898220062256,
          -0.01153368316590786,
          -0.051797762513160706,
          -0.08721595257520676,
          -0.00013515527825802565,
          0.014769347384572029,
          -0.00034403405152261257,
          -0.07456602901220322,
          -0.03505782037973404,
          0.05956786125898361,
          -0.015920931473374367,
          0.04620961472392082,
          0.03858561813831329,
          0.014974883757531643,
          0.0023274810519069433,
          -0.03178320452570915,
          0.03167228028178215,
          0.13934583961963654,
          -0.03563743084669113,
          -0.07493032515048981,
          -0.009935252368450165,
          -0.013052044436335564,
          -0.04563335329294205,
          -0.027378927916288376,
          0.009519807994365692,
          -0.14510206878185272,
          0.012762585654854774,
          -0.014637642540037632,
          0.011737880297005177,
          -0.028148487210273743,
          -0.05647401511669159,
          0.0300800371915102,
          -0.009420797228813171,
          -0.02441752329468727,
          -0.02317005954682827,
          0.018019018694758415,
          0.00274180481210351,
          0.10233312100172043,
          0.002512653125450015,
          -0.01030693855136633,
          0.012263418175280094,
          -0.05867885798215866,
          0.02349698171019554,
          -0.0008424546686001122,
          0.01040539052337408,
          -0.008979118429124355,
          0.0004668488691095263,
          0.03426815941929817,
          0.01370495930314064,
          0.03480900451540947,
          0.004646552726626396,
          -0.01568147912621498,
          -0.012449819594621658,
          0.017353681847453117,
          -0.058574602007865906,
          0.1250641942024231,
          0.06576927751302719,
          0.014574057422578335,
          -0.006238280795514584,
          0.02115446701645851,
          0.11395405977964401,
          -0.17346608638763428,
          -0.13551528751850128,
          -0.09573335200548172,
          0.23756246268749237,
          -0.31701481342315674,
          0.0679682046175003,
          0.006507725454866886,
          -0.00874061044305563,
          0.05004462972283363,
          0.15844976902008057,
          -0.006534330081194639,
          0.020703567191958427,
          0.021468384191393852,
          -0.004569586832076311,
          -0.04074430838227272,
          -0.040332697331905365,
          0.010819134302437305,
          -0.006467291619628668,
          0.032020460814237595,
          -0.003519698278978467,
          -0.046232763677835464,
          -0.03994503617286682,
          -0.03200480714440346,
          -0.013370579108595848,
          0.03868883103132248,
          0.10969152301549911,
          -0.032471802085638046,
          -0.001247309148311615,
          -0.2204418033361435,
          1.4001869885760243e-06,
          -0.002090668538585305,
          0.01747220754623413,
          -0.017627468332648277,
          -0.01831384003162384,
          -0.024229152128100395,
          -0.0016708835028111935,
          0.022169969975948334
        ]
      },
      "8": {
        "features": [
          0,
          1,
          5,
          6,
          8,
          11,
          13,
          14,
          15,
          16,
          18,
          19,
          20,
          21,
          27,
          30,
          31,
          32,
          33,
          34,
          35,
          36,
          38,
          40,
          41,
          43,
          45,
          46,
          52,
          57,
          58,
          59,
          60,
          61,
          62,
          63,
          65,
          68,
          76,
          78,
          79,
          81,
          83,
          89,
          90,
          91,
          92,
          94,
          97,
          100,
          101,
          102,
          104,
          105,
          109,
          112,
          119,
          120,
          123,
          125,
          126,
          128,
          130,
          133,
          134,
          135,
          137,
          139,
          141,
          143,
          144,
          146,
          148,
          149,
          150,
          151,
          152,
          154,
          159,
          160,
          161,
          162,
          164,
          167,
          169,
          170,
          171,
          172,
          175,
          183,
          184,
          186,
          187,
          188,
          191,
          192,
          195,
          197,
          202,
          203,
          208,
          209,
          211,
          214,
          215,
          217,
          218,
          222,
          223,
          228,
          230,
          231,
          232,
          233,
          234,
          235,
          236,
          244,
          245,
          248,
          250,
          251,
          252,
          255,
          256,
          257,
          258,
          259
        ],
        "weight": [
          0.014987203292548656,
          -0.02321556769311428,
          -0.02161160297691822,
          -0.051274266093969345,
          0.003164864145219326,
          -0.008985910564661026,
          -0.004034068901091814,
          0.020046502351760864,
          -0.015409538522362709,
          0.06265648454427719,
          -0.012911037541925907,
          0.01319967582821846,
          0.08045949786901474,
          -0.005165920592844486,
          -0.08910083025693893,
          0.06874581426382065,
          0.07450978457927704,
          0.01322242058813572,
          0.005014217924326658,
          0.028044624254107475,
          -0.010301310569047928,
          -0.008706068620085716,
          0.010954688303172588,
          -0.0019240817055106163,
          0.014428475871682167,
          0.009224561974406242,
          0.004295032471418381,
          -0.012521518394351006,
          0.09703043103218079,
          0.01917155459523201,
          -0.02654111199080944,
          0.0036433995701372623,
          0.010712914168834686,
          0.006627826020121574,
          -0.0656532347202301,
          -0.11943400651216507,
          -0.0054038576781749725,
          -0.05903128534555435,
          0.049240272492170334,
          -0.09440691024065018,
          0.0010900580091401935,
          -0.014694266952574253,
          -0.06397105008363724,
          -0.011013726703822613,
          0.019967440515756607,
          -0.15655842423439026,
          0.030303247272968292,
          -0.00022242525301408023,
          -0.0029234562534838915,
          -0.0004185798461548984,
          -0.01339658536016941,
          -0.14881351590156555,
          0.017801495268940926,
          0.007750139571726322,
          0.0017753458814695477,
          -0.010176028124988079,
          0.01168595440685749,
          0.0070618437603116035,
          -0.011176276952028275,
          -0.00019499065820127726,
          -0.0190855972468853,
          0.04709702730178833,
          -0.00946078635752201,
          -0.0674915462732315,
          0.0429995022714138,
          -0.07525508850812912,
          0.0027336657512933016,
          -0.005035140085965395,
          -0.04223879054188728,
          -0.009536820463836193,
          0.055344291031360626,
          -0.05922865495085716,
          -0.024352485314011574,
          0.027964472770690918,
          0.02266584523022175,
          -0.017734605818986893,
          -0.003139411797747016,
          0.006913919001817703,
          0.023466691374778748,
          0.03387957811355591,
          -0.008243104442954063,
          0.01672261953353882,
          0.026806680485606194,
          0.012814100831747055,
          -0.010148566216230392,
          0.003371034050360322,
          0.007956665009260178,
          0.003962074872106314,
          -0.0325055867433548,
          2.6706900825956836e-05,
          0.07378749549388885,
          -0.05546711012721062,
          -0.1187484934926033,
          -0.015009835362434387,
          0.034946415573358536,
          -0.01067339163273573,
          -0.13265825808048248,
          -0.0021177444141358137,
          0.016181573271751404,
          0.03991227596998215,
          -0.0240817628800869,
          -0.0016491357237100601,
          0.00040252049802802503,
          -0.003697063075378537,
          0.043585728853940964,
          -0.00498545728623867,
          0.020109131932258606,
          -0.05334203317761421,
          -0.08651454746723175,
          -0.026372065767645836,
          0.029167568311095238,
          -0.03593422472476959,
          0.04324337840080261,
          -0.03838442638516426,
          -0.01754661090672016,
          -0.022913895547389984,
          -0.06093284860253334,
          0.03158918023109436,
          0.0233171284198761,
          0.18253564834594727,
          -0.02752160094678402,
          0.010986999608576298,
          0.05265698954463005,
          -0.029318517073988914,
          -0.07301502674818039,
          -0.007486810442060232,
          -0.04227369278669357,
          -0.004324145615100861
        ]
      }
    }
  }
}